digraph Tree {
node [shape=box] ;
0 [label="Media <= 1.5\nentropy = 0.98\nsamples = 24\nvalue = [10, 14]"] ;
1 [label="Is_Opponent_in_AP25_Preseason <= 0.5\nentropy = 0.837\nsamples = 15\nvalue = [4, 11]"] ;
0 -> 1 [labeldistance=2.5, labelangle=45, headlabel="True"] ;
2 [label="Media <= 0.5\nentropy = 0.684\nsamples = 11\nvalue = [2, 9]"] ;
1 -> 2 ;
3 [label="Is_Home_or_Away <= 0.5\nentropy = 0.722\nsamples = 10\nvalue = [2, 8]"] ;
2 -> 3 ;
4 [label="entropy = 0.764\nsamples = 9\nvalue = [2, 7]"] ;
3 -> 4 ;
5 [label="entropy = 0.0\nsamples = 1\nvalue = [0, 1]"] ;
3 -> 5 ;
6 [label="entropy = 0.0\nsamples = 1\nvalue = [0, 1]"] ;
2 -> 6 ;
7 [label="entropy = 1.0\nsamples = 4\nvalue = [2, 2]"] ;
1 -> 7 ;
8 [label="Is_Opponent_in_AP25_Preseason <= 0.5\nentropy = 0.918\nsamples = 9\nvalue = [6, 3]"] ;
0 -> 8 [labeldistance=2.5, labelangle=-45, headlabel="False"] ;
9 [label="Media <= 3.5\nentropy = 1.0\nsamples = 6\nvalue = [3, 3]"] ;
8 -> 9 ;
10 [label="entropy = 0.971\nsamples = 5\nvalue = [2, 3]"] ;
9 -> 10 ;
11 [label="entropy = 0.0\nsamples = 1\nvalue = [1, 0]"] ;
9 -> 11 ;
12 [label="entropy = 0.0\nsamples = 3\nvalue = [3, 0]"] ;
8 -> 12 ;
}