digraph Tree {
node [shape=box] ;
0 [label="Is Opponent in AP Top 25 at Preseason? <= 1.0\nentropy = 0.65\nsamples = 6\nvalue = [1, 5]"] ;
1 [label="entropy = 0.0\nsamples = 1\nvalue = [1, 0]"] ;
0 -> 1 [labeldistance=2.5, labelangle=45, headlabel="True"] ;
2 [label="entropy = 0.0\nsamples = 5\nvalue = [0, 5]"] ;
0 -> 2 [labeldistance=2.5, labelangle=-45, headlabel="False"] ;
}